{
  "layers": [
    {
      "num_nodes_in": 784,
      "num_nodes_out": 128,
      "weights": [
        0.0009759486282266137,
        -0.0015668512052036568,
        0.00018484217028257147,
        0.0005495856464572921,
        0.0007229315193811746,
        0.00014754216541710757,
        0.0007120569580896146,
        -0.0002483929490770624,
        0.00025586612022816064,
        -0.00007742858969679686,
        0.0004196901498457254,
        0.0005265822644052056,
        0.0001851632959768672,
        -0.00046803448466096374,
        0.0008768024764967583,
        0.00011670614815615342,
        0.0006476231367048783,
        0.0003515539288602848,
        -0.0005139308564088657,
        0.0005813784894708382,
        -0.0010512303517784232,
        0.001441051587457623,
        -0.00018605740033469844,
        -0.0010213226390111457,
        0.000486402988626066,
        0.000606134368527826,
        0.0012862697846073167,
        -0.0010384369339494666,
        0.0008138782241832186,
        -0.00045436636165145845,
        0.00008742596422664738,
        -0.000225264248553777,
        -0.0004005386689243492,
        0.0005701353873567585,
        0.00022900040109553028,
        0.0005515953311168233,
        0.0010999381616860037,
        -0.00011161008643668409,
        -0.000933293673444542,
        -0.0004226904326798522,
        0.0000918803897679146,
        -0.0014761652303805922,
        0.0010725229131508642,
        -0.0022352231752736417,
        0.00048710995299491546,
        -0.00043700515973121786,
        0.00020138647201621606,
        0.0004440129468566756,
        -0.000512672721023999,
        -0.0004051212044739683,
        0.001191264175245289,
        -0.00001706372034224072,
        -0.0005551697424447452,
        -0.0002519197388832948,
        -0.0003852506141872348,
        -0.000668625803961879,
        0.0009468543084402024,
        -0.0000858568429662658,
        -0.00010445989499162001,
        0.0008538099713570061,
        0.0007995864253252646,
        0.00034228583071464893,
        0.0008733909813645088,
        0.0012650979832653964,
        0.004686777325275069,
        0.008897855111994002,
        0.004424813827012852,
        0.0037261265596509716,
        0.014721836147143522,
        -0.009270137044567542,
        0.005454290778228667,
        -0.008296459694806827,
        -0.017819588398903567,
        -0.009412080707740423,
        -0.0036328830214980377,
        -0.01192554440101192,
        -0.0040212093977708575,
        -0.002923527931188248,
        -0.0008507775370599476,
        0.0020600857477246523,
        -0.00040198314304111255,
        0.0006381989589587024,
        -0.001967977073540433,
        0.0004652687469876492,
        0.00007924147946466686,
        -0.0015933231986297136,
        0.00017148197176854415,
        0.00006697578685291287,
        -0.0005525978824600175,
        -0.000025122628109453603,
        0.0008862935312846739,
        -0.012703454258262342,
        -0.025049903128269248,
        0.000639267758969646,
        -0.0160513214949748,
        -0.028096554831742396,
        -0.037035220917793786,
        -0.030168859546737765,
        -0.05438250173197975,
        -0.04063828180058228,
        -0.037245505960237256,
        -0.04852876453099017,
        -0.04936870397796608,
        -0.027714498013163148,
        -0.0319880363163407,
        -0.009210138450668131,
        0.00639417502711944,
        0.02051339702197349,
        0.002807923248897098,
        -0.0013684248375020933,
        -0.0002895764193049986,
        0.00018729698145448926,
        0.00046918345142023363,
        -0.00031154555222430983,
        0.00036849672004173924,
        0.001174463447200426,
        0.0011358337945606301,
        -0.002482169251101505,
        0.008910598831486686,
        -0.006568101910044952,
        -0.004407994785658779,
        0.007756373926301957,
        0.0030964789718891292,
        -0.06698918601916973,
        -0.0986952727053598,
        -0.11145939634092085,
        -0.08151099144803589,
        -0.08005287783570375,
        -0.018704108961095787,
        0.0637486125566918,
        0.05450486885113009,
        0.00791087027154975,
        0.0024030109972231015,
        0.007509016094046901,
        0.005944942773853155,
        -0.004052448697089849,
        -0.002086441109748231,
        0.0018144999582723504,
        0.003991394965960004,
        0.0006198504951286361,
        -0.0009067797743325697,
        -0.0007378368558802423,
        0.0007081960457808979,
        -0.0025353933845503342,
        -0.003640263695462982,
        -0.017766048173426217,
        -0.028253118344252176,
        -0.03788064803047989,
        0.01030348241224793,
        -0.01033413557784179,
        -0.07943726893126361,
        -0.03944097212615164,
        0.0011781289022240438,
        0.019759282815772522,
        -0.050764920550366605,
        -0.07495888194012483,
        -0.06050441803631753,
        0.02702317913533263,
        0.07017276185364149,
        0.0725523736970149,
        0.016650831423514777,
        0.0383915769858485,
        0.00998062730797538,
        -0.010760377664579997,
        0.008827967128989332,
        0.009376189095529912,
        0.003393003487436037,
        -0.002440781834569784,
        -0.0002434932389390583,
        0.001816504671377665,
        -0.003163822064955447,
        -0.01197962444312881,
        -0.019208709240535887,
        -0.048784708174947615,
        -0.06497137367709618,
        -0.07767049991222459,
        -0.048015958061776706,
        -0.03748599221058602,
        -0.08659732605181811,
        -0.015649874705560413,
        0.06810317369898879,
        0.02849863183332836,
        0.013249074946519411,
        -0.026445552366400935,
        -0.07429402238367452,
        0.0030608916918789643,
        -0.017649994487892617,
        0.0005756277499748861,
        0.013312049837723482,
        -0.006775051343904603,
        -0.04896710921146995,
        -0.006226176471363455,
        -0.023579531144887825,
        0.002223566912956493,
        -0.006063235802679182,
        -0.0005040507859717813,
        0.0012406025099877325,
        0.002074663323879344,
        -0.0007205155504372468,
        -0.01547404834898889,
        -0.014260206216115925,
        -0.007208533561883601,
        -0.04519243053978323,
        -0.06545171540090045,
        -0.07860837689729001,
        -0.0040451659615939085,
        -0.036907065866040846,
        -0.0065636102363202465,
        0.009527740388598575,
        0.03214153710387658,
        -0.04341153590531215,
        0.046783913254271156,
        -0.042181076812086,
        -0.021852316545976552,
        0.06422296191784595,
        -0.03900600387136357,
        -0.03290776593077912,
        0.04140702958523487,
        -0.003634732985225618,
        -0.02207188687547564,
        -0.0099460091693494,
        -0.0023431110907889525,
        -0.0090892476800048,
        -0.00136567732012892,
        0.0017924773970107132,
        0.00028025279561448606,
        -0.0004824923189182464,
        -0.011021676459228618,
        0.010782787924516273,
        0.06118365122402861,
        0.11375515718208444,
        0.046123329152387794,
        -0.04217350529516941,
        0.012204589717077101,
        -0.03577092211913508,
        0.00785890588224616,
        0.10052723149354875,
        0.09942063642196904,
        0.030743588239585586,
        -0.002430638091313677,
        -0.04680062001488986,
        -0.01669091644383624,
        0.0171127584692304,
        0.02311083016407801,
        0.04192283756793043,
        0.01514548861385437,
        -0.017282233471061798,
        0.03931264005138789,
        -0.018211745431501628,
        -0.015465141627693519,
        0.007113615656689932,
        0.0012429331214002788,
        0.0008940078788536037,
        0.0006873816785432122,
        -0.0011776988589931544,
        0.00038869928759123663,
        0.01952701387507973,
        0.10814357927860137,
        0.06983910681308944,
        -0.0124517002237522,
        -0.05164689055394522,
        -0.06107422642211496,
        -0.05423327973049539,
        -0.04449508362487453,
        0.07229853000215235,
        0.07918193836153359,
        0.013044810423387261,
        0.05444154184197428,
        0.0018860074636979983,
        0.0062560555021273865,
        0.004097358428940141,
        -0.024450162458394126,
        -0.045392003398741214,
        0.014110769622264834,
        -0.05348314956462443,
        0.0454768137450677,
        -0.0006113428012805535,
        -0.004896161118091272,
        0.0036264551789894376,
        -0.008157026061112101,
        -0.00003434862602898007,
        -0.00010786578425687369,
        0.00033578592015782565,
        0.0006526780187498627,
        0.01915781609042269,
        0.07046013739775459,
        0.07082587951002109,
        0.029519296899867355,
        -0.07316440587843176,
        -0.036101500266193624,
        0.07091453635259558,
        -0.04872912079936218,
        -0.04035924031265186,
        -0.06753092980456962,
        -0.05294685316117216,
        -0.023666764230039928,
        -0.021791889043336964,
        -0.015039254748066774,
        0.004688125663907828,
        -0.0658230245629844,
        -0.023475051996756157,
        0.0404280907254851,
        -0.030074744014794878,
        0.010258991916596634,
        0.030750182353092865,
        -0.023536327936831844,
        -0.01397756755362263,
        -0.001676408888666486,
        -0.0004163280105558656,
        0.0027236235902039522,
        -0.00082661354900588,
        0.0023605494923818627,
        0.006520850615765142,
        0.016100500405775542,
        0.1029767915640363,
        0.14977016471223667,
        0.02556176603257492,
        0.07950610480950693,
        0.013183891575482078,
        0.05378914692818711,
        0.0232445199530438,
        -0.04512481496342784,
        -0.04693677119427173,
        0.029755766576787974,
        -0.014090389663844823,
        -0.031127382860028027,
        -0.07633948681333856,
        0.024723011848957165,
        0.07775712120268255,
        0.009764158030839878,
        -0.05157449601870926,
        -0.020368180326929393,
        0.0070421575273434105,
        0.0016834536348512895,
        -0.003041354480078763,
        0.0013527638964789287,
        -0.0013816598673861737,
        -0.0015843170222073597,
        -0.0018287790238298832,
        0.00427268290145621,
        0.010493491472961015,
        0.01990878174315356,
        0.075632036401383,
        0.10947364833861256,
        0.11521834052667675,
        0.13176420159392702,
        0.04635829832366516,
        -0.0574136946937506,
        -0.051159410981118605,
        -0.10612392787902283,
        -0.12085744447054354,
        -0.10697154400107646,
        -0.06810896052845093,
        -0.008780446151881352,
        -0.043096865347004465,
        0.06148759497874384,
        0.02880637546969374,
        -0.039633128878249387,
        -0.042965606480525026,
        -0.05099822372432364,
        0.024522175859416094,
        0.003764193274438891,
        -0.0046590590249203714,
        -0.00032580693064755044,
        -0.0006044888157954591,
        0.0006546315164579698,
        0.0024381995480652705,
        0.004789345530881625,
        -0.012136809301521567,
        -0.00378596921588446,
        0.012486617022713357,
        -0.02776896024572043,
        0.03818114056226464,
        0.08434633528427063,
        -0.013402153010217596,
        -0.10926441898279163,
        -0.21685314231919903,
        -0.12265818931583192,
        -0.027407167540192044,
        -0.021108702306042487,
        -0.06740390047112566,
        -0.0039913909262155,
        0.024576422459817143,
        -0.003826965553288683,
        -0.04167334110835966,
        -0.03497958869016438,
        -0.016862149090586736,
        -0.04132185028013553,
        -0.0030030321611848325,
        -0.0013664564080339626,
        -0.0027372977446550096,
        -0.0003362931529986411,
        -0.0009317563516668766,
        -0.0033254764116790085,
        0.0011527213674973828,
        0.008402715747170756,
        -0.00863170725056462,
        0.0017636782976591524,
        -0.003480285994935118,
        -0.06375397135939474,
        -0.07116526258673131,
        -0.11207937923205166,
        -0.21526787486421498,
        -0.2705867187143184,
        -0.2071721879965103,
        -0.009807823530118309,
        0.0689492188222224,
        0.01609919396265509,
        -0.06753628739660195,
        -0.06917272130634758,
        -0.047384063141637955,
        0.0031451477113890267,
        -0.13183135153448522,
        -0.0682834771830803,
        -0.039115520206591266,
        -0.0496309117022388,
        -0.02664041059586468,
        -0.0003580535826304026,
        0.001294309873631988,
        -0.00009162460425040102,
        0.00011278770177640399,
        -0.0047219571000306085,
        -0.0013040166118925204,
        0.011710013402385977,
        -0.001502399376934013,
        -0.015646801356865483,
        -0.04411964814063587,
        -0.11459515314179758,
        -0.18703200039221204,
        -0.20902279689152944,
        -0.28984349725525493,
        -0.14047338340584045,
        -0.057297942745439236,
        0.09449502137249531,
        0.0859621517905802,
        0.007878265756263264,
        -0.07154813888065449,
        -0.09882284613960242,
        -0.10473869351782665,
        -0.11942991528132671,
        -0.1109450906201044,
        -0.13025519467958827,
        -0.049910181859159033,
        -0.027021602289027204,
        0.011671059222318772,
        0.0010150387301774537,
        -0.0003079496555677503,
        -0.0004790360669039936,
        -0.0001693409288521291,
        -0.003089672894625549,
        -0.004661895369893361,
        0.008277475953773364,
        -0.008700425661145388,
        -0.05134740179412937,
        -0.06276376068615933,
        -0.17309311073006062,
        -0.2858516327891356,
        -0.3441344042313973,
        -0.2324171809298802,
        0.0618307865286546,
        0.17944786651828426,
        0.10925435671140807,
        0.02523758596634052,
        -0.03354875815100239,
        0.015322207621715446,
        -0.009914336679798604,
        -0.04104746441614333,
        -0.1021465272475191,
        -0.10062014447947198,
        -0.05787398534209115,
        -0.019137631182086303,
        0.020658208396315176,
        0.022877553993904544,
        0.008795223608067997,
        0.0029649601671636193,
        0.0014149286887892494,
        -0.002268242700408301,
        -0.0017882113717660553,
        -0.005257213232609635,
        -0.0026605610126201585,
        -0.017018720338019936,
        -0.05967149081590614,
        -0.11366233715081822,
        -0.19331330610298744,
        -0.27302811743354655,
        -0.2919895371371572,
        -0.058018337411699664,
        0.2751374469724352,
        0.3348882304769406,
        0.08443133717011213,
        -0.031078703429087272,
        -0.04411612443677878,
        -0.03899850059693866,
        -0.012692765343201445,
        0.045968786315620444,
        -0.03380347055935078,
        -0.023633250340828124,
        0.007704680728173141,
        0.009781274165087422,
        0.031359143531552294,
        0.04036461281911901,
        0.02670352122292106,
        0.0019544344730555627,
        0.0012838166723303178,
        -0.00009063296191808399,
        0.0006577381569418415,
        -0.0016005561160629463,
        -0.007655151921536869,
        -0.034334974714850544,
        -0.06512681756790097,
        -0.14228260132312673,
        -0.20158703491441626,
        -0.1879744447277368,
        -0.03240669222891201,
        0.202672270005194,
        0.2660447182942775,
        0.2915238180105512,
        0.07399931235467556,
        -0.08674553666420019,
        -0.0029715274836835193,
        -0.0787244923140814,
        -0.029234662286116726,
        0.060598525464018116,
        -0.003209667099253242,
        -0.012546884027268626,
        0.014675822600943291,
        0.027932744369225916,
        0.051977701069177984,
        0.04844528042271124,
        0.013943846822601916,
        0.0037609620336072945,
        0.0017582177495449706,
        -6.400317164882869e-7,
        -0.000665269909817365,
        -0.000518498959838256,
        -0.006223792499637682,
        -0.03761208115760689,
        -0.08737507433535625,
        -0.1513542620701145,
        -0.14335669845709514,
        -0.11009651189338643,
        0.04413424112223366,
        0.2562533960463483,
        0.3330057403987901,
        0.1778214960797757,
        0.061383678519426756,
        -0.05169750233210757,
        0.0010916159004483819,
        0.02370853817904524,
        0.020822842171205353,
        0.020025299426269773,
        0.025415955657094154,
        -0.025165603577464286,
        -0.031860938972739304,
        0.003835761033733669,
        0.040573977256643065,
        0.008256584312361233,
        0.004902455927926366,
        0.002286182650910601,
        -0.0014096421538133126,
        -0.00026121424089263576,
        -0.0008539226155327374,
        0.004339800699641693,
        0.011168126481479294,
        -0.029749523913803116,
        -0.08910892097333553,
        -0.07505034786136786,
        -0.0986540210283871,
        -0.0006011275033261224,
        0.029353667155711635,
        0.23346522358030533,
        0.32140672165648393,
        0.2829873842336515,
        0.002412518086807594,
        -0.15784422139436108,
        0.0417411072198045,
        0.023352077036940207,
        0.05064225708171418,
        0.0712273051156185,
        0.02901906073212081,
        -0.016617326654165272,
        -0.031050722008164222,
        -0.007284754389926506,
        0.016177489594530723,
        0.017672906619886172,
        0.014364617861286389,
        0.0008236282386355422,
        0.0009134992294927836,
        0.000921974192911282,
        0.0006062312961102838,
        0.012714449657889107,
        0.01975678176189384,
        -0.019529250558467326,
        -0.06070433154882429,
        -0.03180650747375732,
        -0.12121863941925956,
        -0.014967658574565012,
        0.0762346134087985,
        0.11630267955347233,
        0.20198176419813887,
        0.20949233786585275,
        0.06286733373801431,
        -0.09410033202590573,
        -0.010017867316090936,
        -0.09134343254076617,
        -0.028517939636926278,
        -0.022603894097524203,
        0.041730339973363034,
        -0.05567369554948085,
        -0.0360659793455764,
        0.024040565907993902,
        0.03754964970589777,
        0.012361572507290265,
        0.008866880813144011,
        0.0071514949482602294,
        -0.0017478455996334634,
        -0.001317321305612653,
        0.00037636122533727035,
        0.0030768999609066304,
        0.005935136732338554,
        -0.011291419503558872,
        -0.03860725938252735,
        -0.050032532878459365,
        -0.035612952734075276,
        0.02204591296636997,
        0.09748648858787431,
        0.006954008647205559,
        0.11905405445558967,
        0.13695752143210274,
        0.09010754017847827,
        0.08006850297244748,
        -0.0034975873596685856,
        -0.12284327712369968,
        -0.13379093949914247,
        -0.03174561823157037,
        -0.04691091065897452,
        -0.0366750892546574,
        -0.010389641501859118,
        0.008547125666150611,
        0.025911221371655878,
        0.004991675187253991,
        0.006949603989232864,
        0.0001452697376592758,
        0.0010314649592340355,
        0.0005182425332466428,
        0.00022522236240410485,
        -0.0006960891638360774,
        -0.017369211429649874,
        -0.012901786671411142,
        -0.056982922400448895,
        -0.05088798506437344,
        -0.033120452528496776,
        -0.00490945505576496,
        0.12947992259090946,
        0.043455457729730675,
        0.08198676750837944,
        0.2185673251803073,
        0.24344518627658834,
        0.16769240215409903,
        0.034117836599913264,
        0.03367069081638904,
        -0.05754180871695334,
        -0.07368062330452671,
        0.021236384527137837,
        -0.018293188007235978,
        -0.018901898869158537,
        0.013709477223222643,
        0.022909715023783105,
        0.003992689868319868,
        0.007386626828262354,
        -0.0015568364694544402,
        0.00048592372269542735,
        0.000021640900210282785,
        -0.0004685617286764273,
        -0.001435813859582069,
        -0.01673978197712552,
        -0.03194015911256963,
        -0.06645455590302915,
        -0.049803203016532384,
        -0.13610496591296664,
        -0.11710601590203125,
        -0.021326559162717303,
        0.008270926249355017,
        0.0845357801178714,
        0.14976754646902854,
        0.12729804921653165,
        0.06190512896160132,
        0.06850014457207353,
        0.053559690664495806,
        -0.048099435772061744,
        -0.005191256263071088,
        0.01624040792358641,
        -0.008079588800850818,
        -0.0015758613478974032,
        0.01425972491039357,
        0.005518406544537051,
        0.0042510534676326,
        0.0023775474140648747,
        0.000017289835152015293,
        -0.0006028975787186037,
        0.0008696231142184481,
        0.000985049819406471,
        -0.0008339302511055147,
        0.0016637629639987635,
        -0.01402195352354757,
        -0.04212860980751842,
        0.009015121115728945,
        -0.01972451903162252,
        -0.06908825990802334,
        -0.1032350889475906,
        -0.07607840610904709,
        -0.04299138331064708,
        0.00011935319870648046,
        0.06446349258922876,
        0.11648960950749136,
        0.08888093535567444,
        0.020095393824609876,
        0.017776528885492752,
        -0.006675895905044105,
        -0.04602930474074396,
        -0.026505666238563853,
        -0.013282995576410658,
        -0.00632157636020433,
        -0.005580240923203643,
        -0.0029904385424425104,
        0.0015029262608686866,
        0.0008680351595993646,
        0.0008490482956946057,
        -0.0003120564471849014,
        -0.0007749160009958362,
        0.0007858878363452357,
        -0.0005397671181429943,
        -0.008921213750914998,
        -0.021386572623335563,
        -0.033951554583948274,
        -0.010938179718077541,
        -0.009073344733444736,
        -0.03779682576204878,
        -0.05628033159981984,
        -0.05837185029560852,
        -0.04308197912001122,
        0.010393860848972336,
        -0.004782942406263915,
        -0.01539932593214899,
        -0.02141064603893513,
        -0.01342761271781138,
        -0.008870033595405825,
        -0.003552681795288071,
        -0.0035912314291105785,
        -0.0029508485864752926,
        0.0006608046310294203,
        -0.00011105455296918619,
        -0.00036641504841532105,
        -0.00009443768579739114,
        -0.00037547341428171844,
        0.00011046081541751688,
        -0.00035465955115737593,
        -0.00031795225786570105,
        -0.0001517481519864659,
        -0.0009696766054345468,
        0.00019114986290800544,
        0.00025158476260473995,
        0.00016352799168192476,
        0.0013210242043551472,
        -0.000347049358105194,
        -0.0006325475891258289,
        0.0037705482837737552,
        -0.00027747708439213855,
        -0.005617673137187527,
        0.0007939470410695063,
        0.000470339749137314,
        0.002141654551109467,
        0.0005067587489030114,
        -0.0006136004154512079,
        -0.004838589930718664,
        0.0010297703334324769,
        -0.00012215602082387198,
        -0.0011930242778968405,
        0.00046615874291249134,
        -0.00019898779174981921,
        0.00040744814906477916,
        -0.0010696441496643265,
        0.0008306131059632888,
        -0.000009654205212585255,
        0.0004387829158137177,
        0.00025129934175515344,
        -0.000677271463954118,
        -0.0006545344623213919,
        0.001106716375907041,
        0.00020308951569139488,
        0.00010504649398204713,
        -0.0007556902955667769,
        0.0003479462508822335,
        0.0005209077771723697,
        -0.0011752108317714797,
        -0.00012788620647865027,
        0.0009537029237067602,
        0.001974227722636396,
        -0.0001574751587363375,
        -0.0006488748412882103,
        0.0006718222557784858,
        -0.00004541425678229746,
        -0.00014400775785770815,
        0.0002471728802257652,
        -0.0002751254074569545,
        -0.0009208140579293933,
        -0.0007154573693061089,
        -0.0007453643307024498,
        -0.001190494355590935,
        0.00005314377895958299,
        0.0005660447924473997,
        -0.00083390183276348,
        -0.0005381145886646601,
        -0.0003537824249883173,
        -0.00019070174992316736,
        -0.0008516411310311896,
        0.0006657663732993747,
        0.00017494992911135717,
        0.005014815508192432,
        0.008011064750322587,
        0.005849576495454073,
        0.0024309403917807822,
        0.0009071461280329962,
        0.0019934414689185024,
        0.00654418100002307,
        0.006205193034179393,
        -0.0007202720760858181,
        0.003745190543367379,
        0.008467358640981837,
        0.006853607907960937,
        0.005413997704339956,
        0.009187160255935967,
        0.008650875034150619,
        0.009786179086841484,
        0.006050791002912911,
        -0.000447254755620184,
        0.0004374263026297676,
        -0.0005643536586049784,
        -0.0006470920600841458,
        -0.001183882032749509,
        -0.00018402851809057154,
        -0.00007670705262403162,
        -0.0006745283779293623,
        -0.0008026074549469869,
        -0.00024483458987193454,
        0.0007822599008276,
        0.007454898804501071,
        0.01769619333047925,
        0.017422885479505337,
        0.0070555891771313635,
        0.011729625734231246,
        0.02664986974692552,
        0.0285728646202962,
        0.011333636325101074,
        0.010699810545629941,
        0.024546371108290343,
        0.038067215663273334,
        0.03659827190386864,
        0.042826828918904436,
        0.036860758314683086,
        0.017488625084776506,
        0.01655854592717188,
        0.018274601142117434,
        0.006779120601579982,
        0.001302419842897716,
        0.00039466670770026537,
        0.0003991147025454921,
        -0.00020009310878023591,
        0.0008589507510032917,
        0.0007003167276125588,
        -0.0008002735109517311,
        0.0015334971390157323,
        0.005646934473798485,
        0.0035200919986298073,
        0.027895915470407272,
        0.04265995999327177,
        0.04838948461513213,
        0.036642518612332135,
        0.02432860397140327,
        -0.03215712661457145,
        -0.024024860136111836,
        0.016518740571040056,
        0.042448482973789746,
        0.0400922000346501,
        0.007784981909760708,
        0.021466106663094432,
        0.08335236497879442,
        0.10244601970049753,
        0.046159508230097485,
        0.045543077975973525,
        0.013716190152514542,
        0.00473554721610646,
        0.003967574275462657,
        0.0017885826634698127,
        -0.00026726346956585485,
        0.00008377720505746493,
        -0.0007703040890682622,
        -0.0010174521771888101,
        -0.002064974063712152,
        0.000248825289097584,
        0.003416605549526829,
        0.0060689843689249,
        0.030556785051642565,
        0.022510517963239482,
        -0.0052752123075408405,
        -0.0017777571216661397,
        -0.0013940766298855191,
        -0.04771544862564316,
        -0.060413291262607076,
        -0.045620702223842326,
        0.030198608171076263,
        0.030439317510329075,
        0.004485457016044268,
        0.015333386226166288,
        0.059132521704200476,
        0.09647969909223514,
        0.04518344558001909,
        0.0691265524327521,
        0.005221150729331341,
        0.015142578929141084,
        0.008060274075042518,
        0.0037105453953828554,
        0.000111502754029235,
        0.00044444486843384844,
        0.0006386160292590259,
        -0.00015733277816145318,
        0.0006659429975625147,
        0.0012667437921836373,
        -0.001153147776346972,
        -0.0021104207775519525,
        0.033734619862174214,
        0.01916832519882924,
        0.010851709880913657,
        0.022309794824380412,
        -0.004834977213741905,
        -0.004943867672679343,
        -0.044316009313652246,
        0.013134384234660651,
        0.00950643779271728,
        0.01548352314983795,
        0.10853245648493919,
        0.1586524654016036,
        0.10417235698491038,
        0.07108435937405004,
        0.06504485411319967,
        0.005843210831255415,
        -0.03786610663744209,
        -0.03874419945959827,
        -0.014709797201520224,
        -0.007410003441072291,
        0.001874373129189495,
        0.001346628784828093,
        -0.00012153744908542936,
        0.0002183843558090835,
        0.0015248423078804208,
        -0.010686763902541441,
        0.00434191994907215,
        0.0004361620714012642,
        -0.0014272345717983416,
        -0.05057655167632599,
        -0.006539730748740333,
        -0.04566353309314704,
        -0.08393606725783725,
        -0.017556436211886055,
        -0.06339560199859438,
        -0.021098678112599346,
        0.04670916887522135,
        0.00916801599541193,
        0.025382003458266297,
        -0.03256288743458916,
        0.005506783519111631,
        0.01004151368383671,
        -0.050472286746347524,
        -0.1052109831910477,
        -0.1474559081658572,
        -0.10728466329608387,
        -0.051335565693666374,
        -0.005061386359248114,
        -0.0013964554703844926,
        0.0009686637445397036,
        -0.00008982515265507866,
        0.0023717473096278893,
        0.0005615381594100094,
        -0.013585828177627927,
        0.0015565816838787713,
        -0.024697980862546424,
        -0.01115529730923986,
        0.024008459934814878,
        -0.04131988598159557,
        -0.056888194568885844,
        -0.04843412474431423,
        -0.0671009194220814,
        -0.13664095481226857,
        -0.13530213157613297,
        -0.04019690031749962,
        -0.09731685587845036,
        -0.10057476158616785,
        -0.17730177434625316,
        -0.13132229867734976,
        -0.15780149612247213,
        -0.20759415046404708,
        -0.19833031357014558,
        -0.21624977583375926,
        -0.1463255376294734,
        -0.06712902782664454,
        -0.028031794332214754,
        -0.0028353502846351353,
        0.0013876355035832724,
        -0.0004768723765846575,
        0.003634775040535811,
        0.003690090998734799,
        0.0009354314631548969,
        0.022920290488384624,
        0.016286143984003396,
        0.01096613900392414,
        -0.03901747422633572,
        -0.07107748425546255,
        -0.08273461022774525,
        -0.10199734573966587,
        -0.10273755909561272,
        -0.11908749290108944,
        -0.14968588811881844,
        -0.2246904648118802,
        -0.26934034438981563,
        -0.3109074641828729,
        -0.30496926931501817,
        -0.25210842899478175,
        -0.2424727411538023,
        -0.23061965882756486,
        -0.21186412366208776,
        -0.19578320672771743,
        -0.11469664797884954,
        -0.046147096029133076,
        -0.026281130671304383,
        -0.005559189070764819,
        0.00006307684766604238,
        -0.0007995922182432548,
        0.005178957439658815,
        0.00968220342280191,
        0.004717686980639886,
        0.07289807767248968,
        0.049747087963243404,
        -0.0412303643173898,
        -0.04672775430431809,
        -0.025577801957888027,
        -0.0833784149251769,
        -0.17440588147007505,
        -0.06161580017046437,
        0.008574395734016933,
        -0.09895200565796423,
        -0.09900979462593197,
        -0.22688642467903763,
        -0.26808157808160543,
        -0.22956521546294328,
        -0.23523336340381454,
        -0.22453352193971615,
        -0.16982945901026283,
        -0.13469985782729407,
        -0.06985344457067956,
        -0.024612196455658448,
        -0.00811308118705357,
        0.0024572929979669823,
        0.015235943067935399,
        0.016599697582705575,
        -0.0003961358805909441,
        0.0054875858019095124,
        0.008289204146433153,
        0.00921097814712611,
        0.057355648439538894,
        0.02273923613139451,
        -0.017681566398751253,
        -0.07528354577703444,
        -0.03296499275316049,
        -0.03283117216975133,
        -0.15225953796744077,
        -0.026328327358667882,
        0.08068973797074173,
        0.06906615013377258,
        -0.022091169360230898,
        -0.05398836947635757,
        0.0008356965637706332,
        0.024459543095756403,
        -0.004590450312346695,
        -0.011221800783731898,
        0.042524754688593645,
        0.02486836360050006,
        0.045924902440794176,
        0.0723442306078682,
        0.07061592571792676,
        0.06314867409369357,
        0.0177453308620934,
        0.0034331558607674025,
        0.0003709326917904547,
        0.0039476769756808475,
        0.03134938989301936,
        0.02986120633933347,
        0.09055460458309177,
        0.06169156404176771,
        0.0034340378708760714,
        0.005142674901938563,
        -0.005024462933774531,
        0.018813288943994165,
        -0.021346034786087854,
        0.089912497714365,
        0.1206121952061869,
        0.1795878491846512,
        0.1642673333966888,
        0.11863748277453424,
        0.21341558229191623,
        0.23683225471133523,
        0.2645569766577679,
        0.18778410205685994,
        0.08837310283958648,
        0.08032364183930917,
        0.08975745682663934,
        0.08257890378650878,
        0.0830055461368183,
        0.034255384292724386,
        0.00017249952968398897,
        0.0014334758936065137,
        -0.0005457615151136855,
        0.0010171342804143465,
        0.014530908442467067,
        0.03504519005937951,
        0.06845055336503165,
        0.03391846466859706,
        -0.05584845451958951,
        0.042169683037650514,
        0.11176200116469617,
        0.05570719483663017,
        -0.019833642942104254,
        0.08375134683437936,
        0.04507754227849824,
        0.05650529438570352,
        0.16673134236086598,
        0.1450131955977515,
        0.23292882531748232,
        0.21427424121896546,
        0.23855519186525956,
        0.20544128639225795,
        0.18388480392037,
        0.08271724996254684,
        0.05254974391649536,
        0.050962337598526315,
        0.0320426770874233,
        0.02305642232195603,
        0.016803496578468965,
        0.007478621604998861,
        -0.00048579560456796103,
        0.000540349274923361,
        0.00951065658376424,
        0.01843098089384037,
        0.07787697358804589,
        0.05112351383927364,
        -0.022156048790104407,
        -0.006907153044949578,
        0.012230523251126385,
        0.023427016933644577,
        0.043546584808219706,
        0.06056189261757121,
        0.03630928114860607,
        0.015537210295725506,
        0.06464510321571608,
        0.050243746743536245,
        0.08678202226824833,
        -0.0013042851143656178,
        0.0593954742760622,
        0.10962977883777243,
        0.15547916997337877,
        0.08956132580541674,
        0.03759685727878717,
        0.09082854328429396,
        0.0318783181470195,
        0.03071365329521921,
        0.005917792058791165,
        -0.001881555451528876,
        -0.0009483894800972011,
        -0.0009921067900273523,
        0.005303606961382674,
        0.013581057664672115,
        0.02273226894965992,
        0.0012554602281720428,
        -0.027577506249502254,
        -0.029219060457718726,
        -0.015857416224978896,
        0.00014759229526459638,
        0.04998101019936511,
        0.05262959156855063,
        -0.005656376371649984,
        -0.04309495479082062,
        -0.02889381694453873,
        -0.015499680380472336,
        0.01156127450700589,
        -0.052153799115967375,
        -0.004668149154608931,
        0.013081061923294906,
        0.0855428340255774,
        0.10062031023966306,
        0.07054470165113878,
        0.046705392247641614,
        -0.036374733589533706,
        0.013855970886933796,
        -0.005912075962618735,
        0.00020719475297422543,
        0.00039441642093056745,
        -0.00036085043042107765,
        -0.00048093262893411713,
        0.0011534628489989706,
        -0.032628891272378634,
        -0.005044375611118816,
        0.021911763208414557,
        0.0030760405778249406,
        -0.02733514911327898,
        -0.06872123603005496,
        -0.04429433350389883,
        0.040833908695397866,
        -0.005164323500854815,
        -0.03921514477908282,
        -0.01264997115026834,
        -0.04420938634863211,
        -0.03042942471611379,
        0.019495177450815113,
        0.0004406645859228286,
        0.0943175837736608,
        0.13616337302580184,
        0.1612555860958443,
        0.05346626891398536,
        -0.00580106579434583,
        -0.019642902134744858,
        -0.005196786710775422,
        -0.013986024365291517,
        0.00013949801940416618,
        0.00012252218002094852,
        0.0003346060105151994,
        -0.00031988003519377257,
        0.009018907304489485,
        0.012749918379149938,
        0.04119158653253129,
        0.048419924406902355,
        0.025886387152874075,
        -0.004692402063151961,
        -0.03511273889599166,
        -0.032494871346332395,
        -0.012702283791045193,
        -0.036919212518163554,
        0.014279907199418964,
        -0.056216633693829614,
        -0.06058981080634732,
        -0.013016038237702504,
        0.027324222075598245,
        0.04445325220536147,
        0.09155709254864074,
        0.12046212007376077,
        0.11313265764483385,
        0.08064118442182139,
        -0.008616894776863749,
        -0.015520483253760087,
        -0.016515154036147294,
        -0.013459273914325423,
        -0.0029470520986075908,
        -0.00010108416177794644,
        -0.0003768072617833206,
        -0.001548139304728885,
        0.005507672750469886,
        0.02427942279406353,
        0.0179254568971408,
        0.07474937452366082,
        0.026092491198508712,
        0.0047786011720129815,
        -0.05133437270112175,
        -0.08076175463951397,
        -0.01282891047129929,
        -0.04284053469394735,
        -0.0002583190316243275,
        -0.06946823247546255,
        -0.061699793019774234,
        -0.059174670890596366,
        -0.036892994074336154,
        0.026836785879344086,
        0.020470204045362893,
        0.1075061259403885,
        0.07856415046794107,
        -0.029771675423388162,
        -0.03517306411415496,
        -0.016391370809978933,
        -0.01965663890849087,
        -0.004984263154227439,
        -0.006656022666925605,
        -0.0004084682350278255,
        0.00020516586845964734,
        -0.0022817491676885393,
        -0.003146041121354616,
        0.029054197599750257,
        0.03149517219998591,
        0.03067141949082358,
        0.04802987080456044,
        0.0344885140823312,
        -0.011503955604924477,
        -0.03907249484636971,
        -0.031040125599529542,
        -0.014810503798403837,
        0.01599526171629588,
        -0.046900837615766654,
        -0.03488508487108302,
        -0.07248086180719585,
        -0.013241878075227928,
        -0.007036717270232343,
        0.01736234756184223,
        0.031683724349237816,
        0.024401525207490216,
        -0.07097203369732731,
        -0.03373737778123934,
        -0.019488398929643956,
        -0.004561260256288988,
        -0.0006146232381970476,
        0.0004532429522122839,
        -0.0006149482726810137,
        0.0035850855609228325,
        0.005728848741547756,
        0.01197978669585014,
        0.03678097899279291,
        0.0029875504534031053,
        -0.020308699000984275,
        -0.01107354388502586,
        -0.010107600353695359,
        0.0029961740513000127,
        0.008103007903071285,
        0.025465623575445837,
        0.01644189011005081,
        0.03224430471244161,
        -0.03574158228212847,
        0.02072405573219422,
        -0.01266189126440852,
        0.08446941773699881,
        -0.027848828957932014,
        -0.03754110780507981,
        -0.062337727001235424,
        -0.05662596266218073,
        -0.08140144162268508,
        -0.004355310049447666,
        0.004180864381539804,
        -0.00008178211291839944,
        0.0008506301604806185,
        0.0003980028601895237,
        -0.00008748038991489652,
        -0.0007695840851693179,
        0.005192101547429125,
        0.0174066848484236,
        0.025525126363728806,
        -0.032032977952981614,
        -0.012357900833122127,
        -0.04244423013654061,
        -0.005972107957014774,
        0.08397015429051104,
        0.0474534909450577,
        -0.012314280764768714,
        0.0018386528842758547,
        0.04165368390281981,
        0.027741395108242355,
        0.0731532420290266,
        -0.0092630302081188,
        0.02614910523144328,
        -0.012244955195325143,
        -0.07035502007209134,
        -0.07722900032071087,
        -0.08528163862848152,
        -0.0638453727683076,
        -0.036627206020658984,
        -0.01060057189894221,
        -0.004192930350497234,
        -0.00019753809113616226,
        -0.00008868906729909375,
        0.0003604370892176891,
        0.0002594427975510552,
        0.0007475856665883143,
        0.002445006299954791,
        -0.02109423989538021,
        -0.0636104204803229,
        -0.026421187856298343,
        0.014206661615433972,
        -0.012279225217102663,
        -0.01298209396647828,
        0.047387188031013563,
        0.04440175659991269,
        0.027475472512268267,
        0.009917953363261938,
        0.04639600049682832,
        0.0563357171527832,
        -0.008772633949602347,
        0.036183889184878346,
        0.015885508196294088,
        -0.016661379626878848,
        0.006677463089786655,
        -0.050754023015403,
        -0.0628646862088503,
        -0.044420174539899764,
        -0.03489809893247308,
        -0.0046117276461956295,
        -0.0004697947312690751,
        -0.0007416391196686293,
        0.00045814107483979725,
        -0.00003788631513419981,
        0.000054173649414867684,
        -0.004466488465381502,
        -0.013797112506635041,
        -0.05351755784606222,
        -0.08470020223008298,
        -0.03728470022114994,
        -0.04909016847604603,
        0.021794365020143258,
        0.04653296917065888,
        -0.002577608032434881,
        -0.09433546877465374,
        -0.0447766449266858,
        -0.04661800520356859,
        0.021679949605911564,
        0.03509008893741658,
        0.027001060603910415,
        0.017386049908252803,
        0.01037603559566957,
        -0.04796222728525474,
        -0.0785501247284541,
        -0.05443107738082202,
        -0.03978893591562652,
        -0.036162209562744456,
        -0.009154473669590449,
        0.00024800196412180575,
        0.0000874664437664837,
        0.0004815747012574285,
        -0.0003830632824852047,
        -0.0006194544368529622,
        -0.005511328870011144,
        0.00007653204855393152,
        -0.008683188980226639,
        -0.04079861774224712,
        -0.041265622459079804,
        -0.018215226207430317,
        0.004909804125301886,
        0.021623743292496746,
        0.00041775695307950993,
        -0.031406949993337464,
        -0.05691947139133233,
        -0.016174325683562942,
        0.002613872561487141,
        -0.03226992659121005,
        -0.025524485989038146,
        -0.02671355335605491,
        -0.0010496316602030512,
        -0.043684438765102876,
        -0.04919072382244672,
        -0.04374943505862908,
        -0.01614087811496059,
        -0.016370560825104668,
        -0.002926554236168229,
        0.0022235315596100314,
        0.00040389997425954933,
        0.000316509908336807,
        -0.00033762444898023224,
        -0.0008563921223493493,
        -0.000022808994422651295,
        0.005284763530708961,
        0.011490707921837465,
        -0.015052379854677,
        -0.013619374407000574,
        -0.006075001257856343,
        -0.040511540446831314,
        -0.04013362740659171,
        -0.04614398906385199,
        -0.04647828342253723,
        0.012337675167768855,
        0.00009935063203515722,
        0.0053564117756702695,
        0.02908802678652254,
        0.061215835768373354,
        -0.01728480843878383,
        -0.002252679882383347,
        -0.03457617267817293,
        -0.05648400560995345,
        -0.025841503066592813,
        0.0008114511970487284,
        0.0007191937248489304,
        -0.0010426400060585983,
        0.0006954447346598606,
        0.0008684608764832947,
        -0.000681597550337562,
        -0.000046659869331411194,
        -0.00007775903873887649,
        -0.0003257964200745855,
        -0.00036655802912111287,
        -0.004113735165181374,
        -0.014670505012594402,
        -0.012311306116262738,
        -0.034582993525195865,
        -0.07520283256089227,
        -0.06466096642712263,
        -0.04031306125045175,
        -0.0011967535454252077,
        0.03169992083335047,
        0.02526676805257955,
        -0.009596898620914538,
        0.07944691105144876,
        0.03222322799604553,
        0.0007157368564515518,
        0.04058280764092489,
        0.02464082776693693,
        -0.019806723412990328,
        -0.011436744186512663,
        -0.0019241654236650451,
        0.000024776867319488342,
        0.0007769995645238596,
        -0.0007335366448789354,
        -0.0009963048339552817,
        0.0006633821759975883,
        0.0008437602097449705,
        -0.0003952264107098444,
        -0.0002584175016535316,
        -0.0000837469299731885,
        0.00010257001078349418,
        -0.0007208204929005496,
        -0.0003978268109551533,
        -0.0044889812948709605,
        -0.00683408396779351,
        -0.0013519009199835835,
        0.017903145311527445,
        0.015829717251316315,
        0.04645741304391569,
        -0.020843872899890984,
        -0.025262301209914153,
        0.0199952425865421,
        0.01715419873867003,
        0.0021266446712643015,
        0.029373975966084345,
        0.017686210801854365,
        0.00021415615530173403,
        0.0019749075698235635,
        0.0003370305810563784,
        -0.0005129234558711727,
        0.00008821643233369476,
        -0.0012414229494265784,
        0.00012099449354097842,
        -0.0005263020463352976,
        -0.0000634533558526103,
        -0.0006357417293753837,
        0.0004904376991951468,
        0.0006716593780319705,
        0.00047871976319923976,
        -0.0003784070095263041,
        -0.0006286356593735044,
        0.0009202268285359858,
        0.0026372940684953865,
        0.01179519799300752,
        0.006466475434215181,
        0.00665959044451622,
        0.004527905785571804,
        -0.00034292655741913544,
        -0.011694885142052023,
        -0.0011224901648583551,
        0.005230952393445878,
        0.0012099311077396157,
        0.0013176370471677276,
        0.001673981386414826,
        0.006938110081992214,
        0.0030947786097761765,
        -0.0005571029503086034,
        -0.0000035221670923181227,
        0.0005229060154982323,
        -0.0005004904084478236,
        0.00018573106067180733,
        0.0016904809672819534,
        0.001686594428808548,
        0.0012554240459741303,
        0.000814905539851527,
        0.0007770908004496302,
        -0.0008029673295603925,
        0.0005087863144055477,
        0.0006987124955207424,
        -0.0009598027286297644,
        -0.000824969371135526,
        -0.00024307060126713682,
        0.001896705378032458,
        0.001450323725455201,
        0.003262829139210807,
        0.0002990830426549153,
        0.00002607483860354717,
        0.0008686691726569018,
        -0.0010846110351432278,
        0.00020866916560543242,
        -0.001971256569621131,
        -0.0000045965898576517335,
        0.00011255210400995796,
        0.0015276289685427484,
        -0.00002204076851020325,
        -0.00026516371267832,
        0.000008586950080128603,
        -0.0004884351702083876,
        0.0013965998931978504,
        0.0003706519003584697,
        -0.0013611967045531867,
        0.0004828379595716334,
        -0.0006009936482723598,
        -0.0003641751085268528,
        0.0006873363287938478,
        0.0036743916617995665,
        0.004279608292565018,
        0.0034793977344074758,
        0.0008731188261299991,
        0.0016013602568234748,
        0.003381544920861984,
        0.015037821121484857,
        0.01338816137639031,
        0.004597454076982019,
        0.009838794256387529,
        0.011181175941043195,
        0.00858303458063397,
        0.006946192029283836,
        0.013048227618067131,
        0.0090640539651096,
        0.005733201872338428,
        0.004557387419552784,
        0.0008149969499959994,
        -0.000368795425020384,
        -0.00002444999668583026,
        0.001037027832660528,
        0.0011554862887094952,
        -0.0014526263518576993,
        0.0006201465069042563,
        0.001506587241159282,
        0.0011957779585913618,
        -0.0006094085074280519,
        -0.0013728252580304315,
        0.003232867818951522,
        0.008686056177812129,
        0.0044601704226291585,
        -0.005505161605472783,
        -0.01001000030405906,
        0.01198633689881782,
        0.022282189106151925,
        0.035894297264316005,
        0.030220800288363322,
        0.027982769945223685,
        0.05026422579979967,
        0.037105754063238024,
        0.037700602437865306,
        0.03657515631793167,
        0.015996791186161596,
        0.017939423067912644,
        0.01825632569896683,
        0.007930871231527225,
        0.0029242107182515602,
        0.0005372715690935835,
        0.00005842039343544183,
        -0.00031733896285394416,
        -0.0009822377521664643,
        0.000749255270301355,
        -0.0005785891763199418,
        0.004788893144320624,
        0.001261449992511315,
        0.00001953553928544238,
        0.001951015624446938,
        0.002704337825649512,
        0.004128209503511599,
        -0.020234447925960786,
        -0.024800983458046936,
        0.029942877540444186,
        0.017993323337941024,
        0.06904318413153193,
        0.08078585576974313,
        0.036225753969720255,
        0.07021919366483308,
        0.056904562062735364,
        0.027190381457179787,
        0.023828820907933344,
        0.024527443466298943,
        0.015036984874643404,
        -0.00014355212028797497,
        0.003636881050189794,
        -0.0031146059395871593,
        -0.012194604175791681,
        -0.0025947162590255193,
        -0.00024827305855613225,
        -0.0005205839331111827,
        0.001078914812183821,
        -0.00032785407006429197,
        0.0014366654545389312,
        0.0002810402862789275,
        -0.012595957811408617,
        -0.03372524151235342,
        -0.039492740360480595,
        -0.030564905195721654,
        -0.028764320372341466,
        -0.020182791181831337,
        -0.017321139027925387,
        -0.029895783863753092,
        -0.010551590623729939,
        0.03826213601808283,
        0.03100145716766832,
        0.04733882548260517,
        0.02536996839825076,
        0.05950178756440426,
        0.08850047749240263,
        0.022714707436858474,
        -0.00906861909571614,
        -0.04228418695838545,
        -0.06596830015079198,
        -0.07097863675086866,
        -0.028648474000911528,
        -0.003251794058646407,
        -0.0001537797851343354,
        -0.0005235910273944351,
        -0.0006420035890638578,
        0.0003744585673819608,
        0.0017368623947549458,
        -0.0013296547564503362,
        -0.024857746227707714,
        -0.05257844225895713,
        -0.041550028215723685,
        -0.05303553316051576,
        -0.012194484522865288,
        0.017997531278518865,
        -0.025134172062842915,
        -0.03941811217409162,
        0.04233740038940993,
        0.07634042872540467,
        0.09713590932348863,
        0.050283261426970774,
        0.015690692371064224,
        0.0568652025615991,
        0.07681638050895145,
        -0.02812824436477746,
        -0.06264246609299585,
        -0.07498339136567708,
        -0.04145607229407998,
        -0.06099856714955978,
        -0.024912111004613637,
        -0.000868234225411364,
        -0.0002408798345182246,
        0.0001236216889548951,
        -0.0003188577745654143,
        -0.00038797774729108867,
        0.0016575401021992715,
        -0.004618267965373954,
        -0.01568244211203376,
        -0.06791114047758326,
        -0.06824496034430941,
        -0.05030527778181011,
        -0.05360770145990573,
        -0.04481959909943171,
        -0.031278283890897936,
        -0.019467022937230433,
        0.07951907369733535,
        0.07394819070768818,
        0.08944725928394431,
        0.01483884582303626,
        -0.07174977656457984,
        -0.010935016986632086,
        0.012631347566437945,
        -0.0588724919768851,
        -0.06925455019529782,
        -0.08797624843006793,
        -0.07413049870257699,
        -0.030632189159869205,
        -0.022399266458529996,
        -0.004405719603318276,
        -0.0014565164178079297,
        -0.0012923966453677871,
        -0.0006461488184516211,
        -0.0001150973256679671,
        -0.0104267748128151,
        -0.020527600677717025,
        -0.045126197643063914,
        -0.1064452257680364,
        -0.1023323620179443,
        -0.07265414610899247,
        -0.0633407714641145,
        -0.07487436359101284,
        0.006617673772578579,
        0.04383561344130748,
        0.0547999704258007,
        0.04671985212678764,
        0.04857821985319203,
        0.022632405491592563,
        -0.07410686249636442,
        -0.04059542004606396,
        -0.008686886843565259,
        -0.03143125434737384,
        -0.01840910433037523,
        -0.06832278413667354,
        -0.060725624275797384,
        -0.025073377388769243,
        -0.03268089351222945,
        -0.0022364979100134323,
        -0.0014672435789727244,
        0.00048034059741186623,
        -0.0010814564346061503,
        -0.0002597824374261701,
        -0.007769810708814557,
        -0.02689137943319701,
        -0.06938668806719321,
        -0.10624209392914195,
        -0.08795786347061323,
        -0.029777821410921747,
        -0.035694251492910514,
        -0.07386833628168273,
        -0.07365901530699702,
        0.07119231885356005,
        0.10743593399091682,
        0.02211493316844956,
        -0.067329081309598,
        -0.0560551468427068,
        -0.13759733253315654,
        -0.13089504572303234,
        -0.0717496343081881,
        -0.01367322634266939,
        0.032989037863060205,
        -0.09198343065121191,
        -0.07808251674157109,
        -0.02594459344611466,
        -0.0164702011066314,
        -0.006801477387882451,
        -0.0011296419115344948,
        -0.0012527925740046678,
        -0.00020981747631992542,
        0.0013185482716559153,
        -0.0037152040393253964,
        -0.022239654773748008,
        -0.05815923620113319,
        -0.09144849999990176,
        -0.056358095382067555,
        -0.024114353222043618,
        -0.024881328960059464,
        -0.002015448236515861,
        0.09250678540880558,
        0.17277761235150524,
        0.164568465606697,
        0.015546385948146469,
        -0.15631036107325136,
        -0.15939529347304524,
        -0.1730622738922097,
        -0.14996289870307822,
        -0.09325009128478962,
        -0.07078521691329576,
        -0.07381676505672313,
        -0.11778336361952911,
        -0.05823553095921187,
        -0.029221118237307456,
        -0.009867009072141731,
        -0.009209261514823189,
        -0.0014081990686893098,
        0.0008497329169801665,
        0.0006017181730390809,
        0.003535342523841289,
        -0.0030326326364684456,
        -0.035997583556561026,
        -0.05566423350170434,
        -0.10201183164958828,
        -0.07303591389838875,
        -0.07148555824931405,
        0.030510122065999908,
        0.07541589953967502,
        0.12196995209608254,
        0.13611544664764275,
        0.08325643997253095,
        -0.07906502370654292,
        -0.12930944554562615,
        -0.04970926170525728,
        -0.02656843240062946,
        -0.027095821799304788,
        -0.0758437064062652,
        -0.10894659150376326,
        -0.10320130073800388,
        -0.0813104071833946,
        -0.05490827670583161,
        -0.04119473967748578,
        -0.015315409959455219,
        -0.0056982353470522,
        -0.0014891286112351367,
        -0.00023185286069130761,
        0.0026128623041937835,
        -0.001956479046180826,
        -0.0018171012189343511,
        -0.02710021682557354,
        -0.04240939849172286,
        -0.07157603009126604,
        -0.09717760915765006,
        -0.06937930544442415,
        0.08834665200741212,
        0.16556639223369973,
        0.11255312558291003,
        0.09390143836161388,
        -0.08106932477581576,
        -0.1803355390338481,
        -0.10444015325091496,
        0.046353014340795085,
        0.0545157333470074,
        0.055630579986600474,
        -0.006868018235469857,
        -0.045876642542193785,
        -0.06736401094587326,
        -0.07026844849279572,
        -0.03309278386738068,
        -0.03902549520332803,
        -0.036793941092596226,
        -0.009888037446380003,
        -0.0014160532419375648,
        -0.0007227449716986148,
        -0.000566497879500763,
        -0.00015065959636695323,
        -0.0005839119236620715,
        -0.020352605735086675,
        -0.017763582923203854,
        -0.05850354808801358,
        -0.06762022167758026,
        -0.041352890876535264,
        0.14238316497813489,
        0.18606999782021696,
        0.1456929621869401,
        0.03982339345231168,
        -0.1827908594036404,
        -0.09527792662472487,
        -0.02811673121833969,
        0.04907469503685772,
        0.030218557944954722,
        0.07097330801270127,
        -0.000330532171445282,
        0.012309912784228445,
        -0.031590908944321545,
        -0.022055259496014997,
        -0.014384178653368145,
        -0.042175466049269826,
        -0.05241949324697131,
        -0.013093251477677549,
        0.00006162423377819246,
        0.0004010922918162615,
        0.00006975432703853285,
        -0.00006221951054290702,
        -0.000887810010870011,
        -0.010959387213056367,
        -0.027398440318524873,
        -0.0400430453451234,
        -0.06566463512341077,
        -0.026931641232364304,
        0.15096929833554848,
        0.15282610298132568,
        0.04672535262333299,
        -0.011080590157221352,
        -0.12834279470674562,
        -0.0359500268273247,
        -0.03908618635475568,
        -0.04659641105042941,
        -0.07214469756744464,
        0.03692826486732053,
        0.13940779125421315,
        0.007664076355119626,
        -0.0158662920416701,
        -0.03668025492332431,
        -0.013852184484611701,
        -0.06774186056899682,
        -0.050549919262122635,
        -0.012959729800280845,
        -0.0018177630343619799,
        -0.00018130725203528917,
        -0.0005907734980468203,
        -0.0005504864120658406,
        -0.008802299821030953,
        -0.021948500276788824,
        -0.024075550360798458,
        -0.061526643229440875,
        -0.0752393996011231,
        0.0516283015085037,
        0.21531201815232276,
        0.17424887005367878,
        0.11325553509385893,
        0.04775083645141053,
        0.008528428821852037,
        -0.05789303882942851,
        -0.03474282124842491,
        -0.05629616750932688,
        -0.02027146040855607,
        0.1284874210331009,
        0.11016884732694136,
        0.1088845156236903,
        0.09033901546238625,
        0.020400762304266847,
        -0.03168276272311477,
        -0.05911657568155977,
        -0.03604840107266404,
        -0.01754774703121926,
        0.0006134507699859653,
        -0.000440571082747323,
        0.0015855406401241335,
        0.0014863565876406864,
        -0.01577192873636573,
        -0.024295276276690893,
        -0.017491477821953837,
        -0.07087896627621156,
        -0.026498510868762308,
        0.05450461808419624,
        0.10758667016839149,
        0.1503247262358223,
        0.1090976242446698,
        0.07374833493792375,
        -0.05534027736451491,
        -0.08608650171296837,
        -0.11555932398105949,
        -0.0729188134832161,
        0.02689630611974817,
        0.12401895352778707,
        0.08964569434640371,
        0.08050283143793147,
        0.08115063262000372,
        -0.012731749297302065,
        -0.02844802421422987,
        -0.050693636567420604,
        -0.04023990269187734,
        -0.03631009909611038,
        -0.0036402364401500963,
        -0.0005621280611615908,
        0.0018758298856948953,
        0.002176584246079355,
        -0.0064044761910643615,
        -0.01461240425096408,
        0.028546797381226053,
        -0.0833005453314361,
        -0.021019549734008616,
        0.07445408195504237,
        0.06936907136253893,
        0.11699528444409146,
        0.11775335793168629,
        0.06288349537040797,
        -0.1111575682820889,
        -0.08451911535286606,
        -0.16124578510097928,
        -0.096397212505319,
        -0.04794022146985158,
        0.02580430607486335,
        0.12689008960073328,
        0.05101894277110071,
        -0.06031154860978649,
        -0.044667517211094694,
        -0.023150403426820777,
        -0.006868617993940456,
        -0.044615757321038216,
        -0.04148268627735444,
        -0.00936158250570478,
        0.00016111206093691018,
        0.00030048342954626644,
        0.0003750906655659963,
        -0.008732192611030096,
        -0.012168392731315567,
        0.03870712383286595,
        -0.06919148347833713,
        0.0175481303349219,
        0.10117999498797646,
        0.037665025746999044,
        0.06629474206028595,
        0.08766390665100926,
        0.08949828621678023,
        -0.0008882734013794932,
        -0.01646709429462115,
        -0.16442037281608718,
        -0.12400041952002981,
        -0.01339057860335111,
        0.05655760076931153,
        0.1754872087752391,
        0.02311393801767558,
        -0.04744668712199686,
        0.005919959804068672,
        0.019657776383416894,
        -0.019366973211252542,
        -0.055311220069490505,
        -0.016887734049982114,
        -0.0006451151846950758,
        0.00015331866345814197,
        0.0001355968110404684,
        0.0026657369073921403,
        -0.0036349283319460964,
        -0.006666030076180872,
        0.008845195879026458,
        -0.04659624621225495,
        -0.017370130896306603,
        0.036998481638285584,
        0.02490572527745658,
        0.05608880681121463,
        0.1079261438569943,
        0.08697654469779803,
        0.008246550775742711,
        -0.07253831658601623,
        -0.08261069343449681,
        -0.05422631630031763,
        0.018648529414485204,
        0.059002131540190725,
        0.08846041416993466,
        -0.010514356724317787,
        -0.0512886540449004,
        -0.03879323692112834,
        -0.03875133253216541,
        -0.08078210789611007,
        -0.035118581771315036,
        -0.012338874313680475,
        -0.009203666545066142,
        0.0005477080263852972,
        0.0010572656382043253,
        0.0033540208105892447,
        0.0024260274362296365,
        -0.000024907004434731317,
        -0.01002758756568359,
        -0.07594471806951208,
        -0.0368420882634766,
        0.015507291606847506,
        0.002778343829668839,
        0.07414123119401816,
        0.19047487973856222,
        0.17882809862210158,
        -0.030738025330545343,
        -0.055802042706231965,
        -0.07202353922403673,
        -0.04825500630453446,
        -0.00016889633209398028,
        -0.009352609240738786,
        0.010870811001907553,
        -0.03565839511146309,
        -0.039549884950403826,
        -0.04834503251342189,
        -0.036149565189584294,
        -0.019148853682163902,
        -0.030457982333362915,
        -0.010215038181755847,
        -0.0027827316225960317,
        0.0008318629240529159,
        0.004375645030694311,
        0.0020920981343883586,
        -0.008835269711897296,
        -0.006859946693568097,
        -0.03117050224588242,
        -0.08906227857647839,
        -0.05357325932633214,
        -0.06577985458403252,
        0.005353984517207993,
        0.010049668754268912,
        0.09709235111369277,
        0.09873703217252938,
        0.008664028175466642,
        0.045999749600748055,
        0.003564154623001117,
        -0.047622938376930886,
        -0.03304257129219,
        0.04595561867062399,
        0.05655237887651318,
        0.026847955133790204,
        -0.005272334440378416,
        -0.022826843428401005,
        -0.0050659238515525255,
        0.007498107466377708,
        -0.0022032068590846724,
        -0.0031117134005731405,
        -0.0006679257132681515,
        0.0010158391645994774,
        -0.0010577047826968412,
        -0.0035149426899666273,
        -0.007417379859406699,
        -0.053979291224965364,
        -0.059614900839262915,
        -0.05876093801262106,
        -0.0647822334740546,
        -0.08559673410786924,
        -0.10656613589925962,
        -0.0733491467729672,
        0.006369501493940326,
        0.027561955045293903,
        -0.006699870999752746,
        0.06556247121840754,
        0.06389219661546215,
        0.007086282057079507,
        -0.016750409446212023,
        0.017575333407008696,
        0.034567504575558544,
        0.032011414936744656,
        -0.03319875337406759,
        -0.0063774997951756935,
        -0.011431042563406076,
        -0.003653099426723357,
        0.0011127432646254162,
        0.008448666405231006,
        0.00041957432189464834,
        -0.0008418542469781932,
        -0.00032000239054668327,
        -0.003197080342466403,
        0.0005808185423383669,
        -0.04226201201014402,
        -0.060941202991341155,
        -0.0689259160274449,
        -0.0720559406815726,
        -0.0991606611197824,
        -0.09173873041099426,
        -0.02294638246304467,
        -0.00927964161776818,
        0.06459142580698903,
        0.12394597103012413,
        0.12736473890110311,
        0.20168500624266636,
        0.1198524429218027,
        0.03173302179222658,
        0.009040064738543959,
        0.005852311269353379,
        -0.03960500815656923,
        -0.031384445205436574,
        -0.013929761421745932,
        -0.00006955154718435207,
        -0.006194181411500241,
        0.0011681909539025415,
        0.0034427214721278535,
        0.0003603464405500189,
        -0.0003226415968934566,
        -0.0011388078781918549,
        -0.0004036045782377482,
        0.0011360259553274135,
        -0.011104246549271085,
        -0.02467976401793242,
        -0.021972288752361388,
        -0.008606104683203266,
        0.0005964291246913994,
        -0.03910413761544492,
        -0.043735998188953365,
        -0.028953297707924628,
        0.029039891487934417,
        0.08367467489998466,
        0.12119829798493038,
        0.10652341642377602,
        0.029721341793571315,
        0.03825351116647653,
        0.0006357509653480403,
        -0.0308536927431912,
        -0.03232344394504846,
        -0.032504971421356436,
        -0.02972281411244559,
        -0.01350204708629828,
        -0.0008829045727924823,
        0.0018188634571345442,
        0.00040513239314818734,
        -0.00017382981661668743,
        -0.0001955868789837816,
        0.0000022035054696784213,
        -0.0003961209431249239,
        0.0013248066003912003,
        0.003897030827171186,
        0.006492389480999914,
        0.000692289610308891,
        0.016987333248964225,
        -0.0010407439151058264,
        -0.025097052961606036,
        -0.05755233816159822,
        -0.1030802361469095,
        -0.010037935931916608,
        0.02118762196770247,
        0.038843146126651795,
        0.09640430629544819,
        0.029012149007388157,
        0.025118686371414168,
        -0.004525192114920839,
        -0.04858333679050719,
        -0.01042394021929519,
        -0.03174907765078998,
        -0.018789772979732975,
        -0.013964024085553015,
        -0.0030207031221474844,
        -0.0018634363276913222,
        -0.001872429856818291,
        -0.001353885366347174,
        -0.0004767750270161721,
        0.00019246151826600962,
        0.0009552906138118309,
        -0.0006037650860053168,
        0.0009356869594146949,
        -0.00039871247190182227,
        -0.001533769067195527,
        0.0012159691607342153,
        0.004839686423148845,
        -0.0028789237170305697,
        -0.017623597014520122,
        -0.01542943768697441,
        -0.009223796322348177,
        -0.022520705042866507,
        -0.030435225727552098,
        -0.016228699076303674,
        -0.021081725461915068,
        -0.012206897823969881,
        -0.02040484932265817,
        -0.013257447720735492,
        -0.006636637059308132,
        -0.00900528386587368,
        0.00504551759609581,
        0.0016329269229675627,
        -0.00014641625753440446,
        0.0003137603632707112,
        0.0012357060527521148,
        0.0002660268772214754,
        -0.0004526845593369915,
        -0.0012924105887677966,
        0.00031263153206303036,
        -0.00010052112319856887,
        -0.0006570265347569324,
        -0.0013581868806444286,
        -0.0006496105218898531,
        -0.0016856460811888693,
        -0.00031832975321232065,
        -0.003253805334344804,
        -0.008681246698140778,
        0.003036902245063335,
        0.001049402059541308,
        0.002295268874689066,
        -0.0034016653879767908,
        -0.006980917324888037,
        -0.009643869984311272,
        -0.005756785805460636,
        -0.006825431312734505,
        -0.005357889978085342,
        -0.006132266355034451,
        -0.014414905921895815,
        -0.0024755278919549087,
        -0.0009132460982422519,
        -0.0008680050644790062,
        -0.0006004176827060676,
        0.00025031575173746907,
        0.0002987079979346288,
        0.0008738631744263541,
        -0.00026356597541894765,
        -0.00025731013164988095,
        -0.000148819626275058,
        -0.00040375635424676995,
        -0.0006099969084253846,
        0.00002569566822121819,
        -0.0012737588032135487,
        -0.0007520037948494704,
        -0.0017835899274031885,
        -0.0005217765356046645,
        -0.0001353123107983542,
        0.0003043515034722951,
        -0.00036506625840119453,
        -0.0018237888924157325,
        -0.002014407256790357,
        -0.0010176239389254693,
        -0.0007150313251107633,
        0.0009608445981946119,
        -0.0009826675877077703,
        -0.0002646147280810814,
        -0.006556149906369918,
        -0.005036853031603886,
        0.00025609930043256584,
        -0.00042329937164456677,
        0.00028987392647035205,
        0.0003590995586267203,
        0.0015648141703486222,
        0.00023562353604301896,
        0.0006710889879203647,
        -0.0003620188358907189,
        0.0003895398635776898,
        -0.0001558704677806455,
        0.00056432594657568,
        -0.0004977124934160353,
        -0.0003726305766780203,
        -0.0010701499648261,
        -0.0014949876589739372,
        -0.00039703309445657226,
        -0.0011805892541021407,
        0.00016730995998279533,
        -0.0020302451131606353,
        0.0018970131339666198,
        0.00006722684181158845,
        -0.0013748161156954342,
        -0.00038159262806432894,
        -0.002071367173164746,
        -0.0010877202203796522,
        0.0014407768552624964,
        0.0002658761559208991,
        -0.0006344143262227241,
        -0.0012729691248412021,
        0.0007168983477451584,
        0.0010484782070410363,
        0.000442477198427575,
        0.0006392540418228634,
        0.00021127377823901712,
        0.0002886097568872834,
        -0.001053447275514447,
        -0.0005034641196231701,
        -0.0005643905864075407,
        0.00011533170009846524,
        -0.001607923529852117,
        -0.0018054782506507084,
        -0.00016671408969274451,
        -0.0001337445332674864,
        -0.002524593863000177,
        -0.0007781030119490416,
        -0.005835101817387494,
        -0.002800115720285889,
        -0.0035158297552572624,
        -0.005419347625954203,
        0.00981669940652204,
        0.003222337406996961,
        -0.0018469914666354064,
        -0.00394116154232145,
        -0.003785392825610722,
        -0.005228521366409661,
        -0.002025635755350736,
        -0.00030518596446377325,
        -0.00093411965502644,
        -0.00004319988838584322,
        -0.0002681223515807901,
        0.00044425742974424826,
        -0.0019073650530257577,
        0.00027002854521840613,
        0.0011775426092393644,
        -0.00017068090559313673,
        0.0006183988928527265,
        0.00009316988940194256,
        0.0006175554315256553,
        -0.0007008729717253845,
        0.004013929263361111,
        0.02067475301442344,
        0.026814165442970522,
        0.017745442094739675,
        0.01933918400097134,
        -0.0016941686426397596,
        -0.008232337265438294,
        -0.02857474748765538,
        -0.003912082202844416,
        -0.008191584175900823,
        -0.019540825992460157,
        -0.03867352965173929,
        -0.011846763804088924,
        -0.010985479366985107,
        -0.01275551603024102,
        -0.002578183045965431,
        -0.0012166550665079906,
        0.0005184002475113381,
        -0.0006159524384542289,
        -0.0007318159335243737,
        0.00008631933497991127,
        0.0010171460940389696,
        -0.0010470944633768453,
        0.0002181604072795272,
        0.0011547924759272542,
        0.0004929864971607953,
        0.00043563087771729837,
        0.0016206451138755145,
        0.01893960768363849,
        0.05610376782070591,
        0.0842308225617022,
        0.11406822673560674,
        0.10184982763249871,
        0.06270993122302237,
        0.0513656362735315,
        0.0328930508645499,
        0.042416647996195454,
        0.05203477377712747,
        0.027332234114547594,
        -0.010842550998253882,
        -0.020685580140177733,
        -0.012297058419592798,
        -0.02248750430694809,
        -0.015618181507616432,
        -0.004544916130215271,
        -0.0019485735055255972,
        -0.002042676101396805,
        0.00021125251310810333,
        -0.0019003872730403702,
        0.0006316155280585378,
        0.0008510238850535042,
        0.0012968740248585668,
        -0.002358223032995656,
        -0.0027669152807855233,
        0.01881087502054701,
        0.04742535126331576,
        0.05394944149213934,
        0.11842003992281484,
        0.17416624490678984,
        0.2056931887688582,
        0.16468066428801242,
        0.0806088211579648,
        0.06721061048816636,
        0.042331788233348176,
        -0.0004645517986383075,
        -0.006643102146819492,
        0.007256176437197326,
        -0.056190189198951024,
        -0.030589156634516,
        -0.032672740585894866,
        -0.025534172055078644,
        -0.014489006576654619,
        -0.0027950569213448973,
        -0.0033471952369214107,
        -0.00002956758022875,
        0.0000722641754721111,
        -0.0001224318078668031,
        0.0004827138358122573,
        -0.00040416535394730826,
        0.002010134456404905,
        -0.0036025333465471627,
        0.0024648874553563093,
        0.048322953689882896,
        0.05568826954228887,
        0.033079379804647605,
        0.04793053929688751,
        0.09726976871547699,
        0.14667958493171207,
        0.16608555626277474,
        0.09260537711041854,
        0.0282890452965036,
        0.023431750010381888,
        0.12180064147036498,
        0.046286434016273,
        0.06847175511089162,
        -0.0019627159595615694,
        0.014755131168636864,
        0.03599570761796285,
        0.024469370994437484,
        -0.02180213866221678,
        -0.004548935763434031,
        -0.008149931389780138,
        0.0011335892515980184,
        0.0004886048372516259,
        0.00015584209529632221,
        -0.0008729682365389779,
        0.0003277656876060405,
        0.0019412330390813416,
        -0.002411283840685962,
        -0.0014567777748704495,
        0.04181798487239135,
        0.012447226525877288,
        -0.06315215074481136,
        -0.05002753653212749,
        -0.042209431270766797,
        -0.09985344371233545,
        -0.041591651769739384,
        0.0034216129001968226,
        0.00924259342798286,
        0.06332977956172327,
        0.08326544287494118,
        -0.007006559352513745,
        0.05121696434419919,
        0.007083850238719166,
        -0.02921176224888924,
        -0.002357310644455547,
        0.04138016620452112,
        -0.014185079909009675,
        -0.013747026659085374,
        0.0003551869013810087,
        -0.0000412779122708715,
        -0.001291301247184697,
        -0.0023492368516636235,
        -0.0003734064100515796,
        0.0003433220405985885,
        0.0012250231884837765,
        -0.006824047102509232,
        -0.020769057864438525,
        0.016098789067474986,
        0.014412060797644038,
        -0.061696203890250774,
        -0.08225229974412586,
        -0.09659564390110527,
        -0.062165556825640254,
        -0.06827970412986373,
        -0.0018878037936678942,
        0.09150156393815513,
        0.006801683816336084,
        0.013610943154487663,
        -0.07234942226619347,
        -0.11117927478426448,
        -0.1486288661660009,
        -0.07749779640592395,
        -0.036842769004051486,
        -0.07297124200706753,
        -0.09569536360211472,
        -0.0017962534584243966,
        0.0163019928789397,
        -0.003785439980478979,
        -0.0015598667459032192,
        -0.0011197524683844654,
        -0.0004109939319476517,
        -0.0048813111440622016,
        -0.010062271140265418,
        -0.03834008129672917,
        -0.05788779050114008,
        -0.053435991734249635,
        -0.07840154768925929,
        -0.16803371484811494,
        -0.13252500876116913,
        -0.047180465378887974,
        -0.034028820313552,
        -0.12423109198886553,
        -0.03465537132653913,
        0.02661536400052646,
        0.01915674006091818,
        -0.033540626999583746,
        -0.03358439506678435,
        -0.06562262993080134,
        -0.06911525652122422,
        -0.021984939996123654,
        -0.0697277949892188,
        -0.04798037133289499,
        -0.03304564268630559,
        0.007965482460008609,
        -0.006285773081459903,
        -0.0005651017417174232,
        0.000600611984262467,
        0.0011147371017479841,
        -0.0009111607042580757,
        -0.0047656038557052525,
        -0.018741441902712538,
        -0.06928422578404793,
        -0.09315317728667097,
        -0.14499062873882104,
        -0.18886963066329562,
        -0.2014749266188978,
        -0.18056835477542596,
        -0.09023956613847554,
        -0.13806127705243873,
        -0.1060235787787761,
        -0.13929818659167617,
        -0.09779196282716582,
        -0.07662988363742092,
        -0.03847061823096518,
        -0.03762694394063107,
        -0.012811160301855062,
        -0.041843352549298066,
        -0.043846183302653066,
        -0.004187192968958367,
        0.060707576093212985,
        -0.0059385628335904194,
        0.0034707082920047575,
        0.004432835163243112,
        0.002873081704474275,
        -0.002060742478599907,
        -0.0005714560571911942,
        0.0014443677090601238,
        -0.0013344201262746735,
        -0.012865781014837013,
        -0.06490835812354441,
        -0.09268996783660569,
        -0.15794651099616033,
        -0.1432855997579782,
        -0.12328241294317768,
        -0.16856710035693268,
        -0.25132261043330084,
        -0.2410434031762553,
        -0.20386142130430152,
        -0.33603215823529586,
        -0.2825407636122402,
        -0.14898261974632246,
        -0.03717912548674078,
        -0.09805068194982701,
        -0.06470588385676992,
        -0.050420324798368346,
        -0.03405176211794695,
        0.02191311994179262,
        0.026056373912099088,
        -0.0090056688058986,
        0.02186697245754943,
        0.014042217540017112,
        0.004486332853886406,
        -0.00006381147356054751,
        0.00018352762958631755,
        -0.00005117402992545362,
        0.0057692300310977305,
        0.0013699665603624813,
        -0.032120123687308336,
        -0.07277017236122846,
        -0.10122539079555565,
        -0.09926446173029939,
        -0.029358852576444664,
        -0.1620454256943297,
        -0.2439208098348477,
        -0.22743866063743937,
        -0.2515185162708597,
        -0.21776006656623165,
        -0.13023669263116092,
        -0.07355368935817823,
        -0.08920464313589427,
        -0.10147312728195067,
        -0.07796699190552933,
        0.024938671699341688,
        -0.0054559151081358505,
        -0.019875499399761885,
        0.011644423594695702,
        0.01881410353067076,
        0.029184896776751915,
        0.022664983522557147,
        0.0013159929800433622,
        -0.000645754915132738,
        0.00003219907899762181,
        -0.0009546324436408673,
        -0.0017327814278817752,
        0.011973510161717726,
        -0.019301579878069568,
        -0.034556579199106464,
        -0.03233023385797099,
        -0.010770643639347153,
        0.06401135302803752,
        0.00581676358886339,
        0.051314811931711835,
        0.016072776870850833,
        0.06408738577240827,
        0.12018407217930088,
        0.12838257017017185,
        0.02477902550260657,
        0.0719039580350971,
        0.003180674595436859,
        0.028001352778350398,
        0.040000171801544596,
        0.008445895928582532,
        -0.01616943707124349,
        -0.0035330682929215294,
        -0.061299414045067085,
        -0.007414949765179553,
        0.02758561964835139,
        0.00044273833699515897,
        0.00020542816464846347,
        0.00040250804265414724,
        -0.0003331172495627347,
        0.00416966185301316,
        0.03624905848305339,
        0.028089455773923445,
        0.04087679941933457,
        0.0755379155664942,
        0.061833681946617466,
        0.10835400813361241,
        0.044823134469643526,
        0.08275367755177485,
        0.19155517852238732,
        0.28774550267977056,
        0.24649784505925118,
        0.1282958985803784,
        0.11491190488917898,
        0.018888716391394295,
        -0.07073224291020183,
        -0.05392661750607547,
        -0.03247844013197304,
        -0.025161197048763292,
        0.019582907175958928,
        0.039327081715672015,
        0.025735042957454688,
        0.06280025249806749,
        0.032362019951452374,
        0.007652447130920382,
        0.0011101340413363103,
        -0.0013472932918225091,
        0.0002531687703421815,
        0.0027675067095331548,
        0.03736093495117112,
        0.06962429333804367,
        0.09116163022795835,
        0.18629362649078274,
        0.22200773662687484,
        0.16445554935978418,
        0.1580334046826517,
        0.1942686831321546,
        0.2310940366425682,
        0.21077402867051112,
        0.14191711797308773,
        0.15731106569707756,
        0.08897104162381819,
        0.0773074572918451,
        0.04695821013229058,
        -0.0051008835970455055,
        0.03440186312251371,
        -0.018138082723704308,
        -0.006503721876041549,
        0.019891345377982168,
        0.13078561471548591,
        0.08484514077805551,
        0.023431356784068706,
        0.015202080973938261,
        0.00009898630802352599,
        0.00026248274160944353,
        -0.0006994488264762249,
        -0.0018274681494304325,
        0.038908843909962756,
        0.0486018956273506,
        0.11432715379805289,
        0.1821173313191519,
        0.18133865496072082,
        0.14194811463982326,
        0.1607864125715414,
        0.13311382212757564,
        0.021601065003030443,
        -0.07579660937893706,
        0.0640488846518345,
        0.11749783894947254,
        0.15915433155314365,
        0.08158022975241694,
        0.04012050906115142,
        0.041214869255477196,
        0.04865607158543658,
        -0.04144608605328481,
        -0.027613486573725823,
        -0.03154665888162795,
        0.06267423113427177,
        0.060260456941686996,
        0.007088297470325687,
        0.0018041673531772472,
        -0.00004919013133362355,
        -0.00022057053242528657,
        -0.0014457676279520451,
        0.0009335989174682841,
        0.04969520432918254,
        0.06273982705671673,
        0.09055023455871969,
        0.11968518631290913,
        0.15524609435345282,
        0.0742341537652372,
        0.11383731796114219,
        -0.05170158311332395,
        -0.0836658390757054,
        -0.03836695356946892,
        0.044695196447311,
        0.08311164826981592,
        0.13262167901404429,
        0.026199804518609992,
        0.09663099948825218,
        0.07067223118694507,
        0.09901562473339896,
        0.010865850521756542,
        0.047471326545844544,
        0.03495899075623937,
        0.04825670316823128,
        0.023249169095669063,
        0.01282672116712904,
        0.022948416667952807,
        0.00259150841296877,
        -0.00023711652840755705,
        -0.0011074651619943849,
        0.004286818147743075,
        0.05495247257095159,
        0.04819606463585917,
        0.07406528051159235,
        0.10233240518883972,
        0.044885935534215125,
        0.011825084899295547,
        -0.03492378400099149,
        -0.06448540944920587,
        -0.026198049696741575,
        -0.01714033383233868,
        0.016161270190199455,
        -0.0043051982381715655,
        0.05077553102397457,
        0.042843230945528624,
        0.046936669826725265,
        0.08556659388358613,
        -0.007328889328139499,
        0.031688164351847764,
        0.011645711742266989,
        0.0353986505474249,
        0.010051639892750017,
        0.005685225918899928,
        0.0054626842508094615,
        0.007359563346058466,
        -0.0020004402699005056,
        0.0005827864898012606,
        0.00008846700278847588,
        0.0032305022617259214,
        0.03573765522552978,
        0.008013229435016011,
        0.03463759514744698,
        0.026929573385473846,
        0.005498222765920704,
        -0.00578879349694721,
        0.02218530034731413,
        0.03476198360357506,
        -0.05117639738348646,
        -0.08872195216870461,
        -0.08671803194492399,
        -0.04759728005840431,
        -0.046286081239031475,
        0.06389077127925225,
        0.08582996963045453,
        0.03886092894125447,
        0.03419432523941899,
        0.016183156274225778,
        -0.0012318930639876856,
        0.053046210085803305,
        0.03269396176727186,
        0.03295528131372728,
        0.011416773981125804,
        0.00718032339629257,
        0.005083827152470146,
        0.00004171966949087853,
        -0.0033375682037601086,
        0.003661068368444494,
        -0.014998384753964937,
        -0.009212204110160266,
        -0.005381022491993926,
        -0.037488831479559726,
        -0.06185986586331087,
        -0.10436855451238837,
        -0.03346137351320029,
        0.0166456110930914,
        -0.01933971208128063,
        -0.1478434077707382,
        -0.11249951278492942,
        -0.13227810962028952,
        -0.05060675546601985,
        0.02430271327636995,
        0.09019853155616697,
        -0.002245951101896815,
        -0.03398045063797497,
        -0.004389683207631999,
        -0.009127065445050183,
        0.016447693788966183,
        0.010669206799165937,
        -0.01587625044656474,
        -0.0025145539756885353,
        0.008900547276345622,
        0.004593057097726945,
        0.00044394519916856506,
        -0.005152171128232736,
        0.000005151032488349703,
        0.0016933611577444393,
        -0.05603714189765067,
        -0.005669839467818705,
        -0.07750525160580304,
        -0.04675151086787229,
        -0.0643656379443427,
        -0.09515728442722489,
        -0.02776927870828352,
        -0.013003596968073931,
        -0.039635302038908304,
        -0.06617464227043164,
        -0.16010557090852578,
        -0.04700380535903909,
        0.0015822783108487986,
        -0.006898358530150604,
        -0.05087360688735848,
        -0.002734997801699998,
        0.021743234849422147,
        0.022211623127924573,
        0.008232294658467783,
        -0.020714311305426062,
        -0.02292384668002682,
        -0.011373233745547313,
        0.0014824626580383666,
        -0.0006555158463525444,
        -0.0017187969387909422,
        -0.00029535317446657404,
        0.004285381570498939,
        0.012844150087993974,
        -0.012201250499729118,
        -0.025611312015447057,
        -0.017739928026490156,
        -0.01078070964780801,
        -0.024635524065616744,
        -0.06437562965229933,
        -0.05916711125252829,
        -0.016918781093768882,
        0.023451557464031568,
        -0.025528946516846663,
        -0.06398705626256533,
        -0.005796232658368684,
        -0.04707197793142737,
        -0.018162761274003555,
        0.0029226003216155354,
        0.08654201635278064,
        0.07252065145606035,
        0.05792780069028286,
        -0.006741118233802303,
        0.008880319965747388,
        -0.0217927279898004,
        0.0032512397886449522,
        0.001483541179132431,
        -0.0014345362772740535,
        0.0017694139250200597,
        -0.00042144042884299717,
        0.004634290016823487,
        0.014280122124739064,
        0.022249102110853423,
        -0.024540842723228897,
        -0.013694406201672286,
        -0.020645626815215045,
        -0.024319556027662278,
        -0.05110440446546304,
        0.023732866597777118,
        0.03942537879150162,
        0.018446172198655384,
        -0.0192150904310594,
        -0.03395383948519728,
        -0.012010762794755107,
        -0.06168580276581647,
        -0.04053546147775632,
        -0.03827598981144238,
        0.05081491807933455,
        0.06334122717836253,
        0.02703779524792796,
        0.0010509603010246723,
        0.002850292434775188,
        -0.019342600671447423,
        -0.012786811867099276,
        -0.0023398015058790364,
        0.00021983947229042684,
        -0.0003233352332585457,
        -0.0006743337159765648,
        0.0005720810729417242,
        0.002582851010877216,
        0.025317129229073063,
        0.01780905200250552,
        0.0028766605272112404,
        0.031048805005808894,
        0.027616925047205233,
        0.04716207167344503,
        0.032829281184016276,
        0.024845238606735855,
        -0.007981758265173158,
        -0.03782210301458234,
        -0.012212400017978655,
        -0.04473921736896284,
        -0.06528015549799338,
        -0.09724221163809152,
        -0.08307639527644807,
        -0.06992143410218475,
        -0.0303586708460064,
        -0.008433071981631072,
        0.0007486411968276905,
        -0.017440770626847436,
        -0.02080392998466673,
        -0.008597973363201755,
        -0.0013634770461287257,
        -0.000018558928214133184,
        0.0002833076205279467,
        -0.0006639049656274102,
        0.00001095339140897916,
        -0.0031894886356350254,
        -0.005815828986334311,
        -0.011352290919407277,
        -0.025202056370035843,
        0.013730944820821227,
        0.02325860138902202,
        -0.0017048921401083823,
        -0.026423937699017883,
        -0.04558321209755012,
        -0.04727598094934073,
        -0.07280064723762245,
        -0.03670659279480718,
        -0.08817719267352159,
        -0.0782950673326887,
        -0.02047134671992877,
        -0.01201703066992092,
        -0.017017199619754553,
        -0.012509666217834486,
        0.0047243767561029265,
        -0.035032459257897997,
        -0.029258252347051254,
        -0.001737401832199427,
        -0.0008559316028158013,
        0.00015942228396816487,
        0.0006199739083637204,
        -0.00006961638225488262,
        0.0005073063361158072,
        0.0016153557012230952,
        -0.00023256417120429298,
        -0.004205464353926791,
        -0.017312043215933482,
        -0.025120106562243696,
        -0.02791626796466386,
        -0.027468468171589322,
        -0.022005239893316934,
        -0.022902200424293924,
        -0.018968729796314678,
        -0.04503421469520632,
        -0.046548585569594264,
        -0.03376965840946504,
        -0.03144028855935593,
        -0.019990198802167354,
        -0.016440240550587855,
        -0.0319160546720942,
        -0.030999670922318402,
        -0.018052298648588365,
        -0.033329094236050905,
        -0.015159214560429039,
        -0.0003058071171337895,
        0.002231171576023996,
        -0.00025234608320314877,
        0.0005883556954746467,
        -0.0008938477155374746,
        -0.0009704501698835258,
        -0.0005176150849462199,
        -0.00027604093873826574,
        0.0005065954504963748,
        -0.0009702295643784898,
        -0.01728851453503779,
        -0.01771922676411844,
        -0.007247915391075937,
        -0.0010905277088190711,
        0.0053581904296438184,
        0.001718968960378617,
        -0.011744886620779407,
        -0.017103332120616658,
        -0.010015463297613037,
        -0.027677808161920933,
        -0.02511868661056671,
        -0.02198698812523805,
        -0.026405047096326996,
        -0.03498025305689685,
        -0.016496601148772067,
        -0.01698931625022799,
        -0.01431884640709389,
        -0.0015661580734327657,
        0.0003942483178295818,
        0.00007430099522668118,
        -0.00010818176717937977,
        -0.001081038263406544,
        0.00043554613460283255,
        -0.00013180664262161688,
        0.00044716497659201646,
        0.0006751249686472736,
        0.00014636735236683244,
        0.0007523378142258227,
        0.0007001517030635354,
        0.0003907239656502152,
        -0.00008027835605141815,
        -0.0010625515181323414,
        -0.0007145531896451393,
        0.0007013044472865955,
        -0.001062550637189502,
        -0.00053407695414354,
        0.00012877021270673022,
        -0.003156745725810929,
        -0.000335786074331062,
        0.006918877116214602,
        0.0004216603215930128,
        -0.005139283333112843,
        -0.0043418057820087085,
        -0.001302587722492051,
        0.0011779111660256752,
        -0.0007777329458426238,
        0.00036774061240667634,
        -0.00044699048982257234,
        -0.0011495587670517881,
        0.0007235013211392482,
        0.0001793295951034579,
        0.001279940283111946,
        -0.0006790069241626269,
        0.0005556551463918347,
        -0.0013658007287852588,
        0.0008003050606783726,
        -0.00044377644501268436,
        -0.00008669914204228625,
        -0.0005492253578222107,
        -0.0008726005039090912,
        -0.00008195372423473549,
        -0.000607038107064119,
        -0.00020627631549535356,
        0.0011030724172812097,
        0.0011839486990509085,
        -0.0010186195920306451,
        -0.0006222569227536345,
        0.001756984353026301,
        0.0014922667220280594,
        -0.00026290763039545876,
        0.00011993255032426621,
        0.0009530647868202514,
        0.0007887501565406479,
        -0.0006140172097493919,
        0.0012063630321596944,
        -0.00036292722218933196,
        0.00011974358240902954,
        0.00034462906565011663,
        0.0008443754950374355,
        0.0015651824059501375,
        -0.0006230992125651289,
        0.0006073695282282383,
        -0.0008034108385851202,
        0.00034669611769217595,
        -0.0010339026221172303,
        0.00004018433894223402,
        -0.0003539757903507253,
        -0.0005670658596481672,
        0.0005291414977169042,
        0.000599944532669051,
        -0.0011705320947010913,
        -0.0001785376387700095,
        -0.0007516717946497049,
        0.002475727334194291,
        0.004216098874830147,
        -0.0008981416527305172,
        -0.0011147374927343956,
        -0.0006252772826563745,
        -0.00037289296073754014,
        0.000009913306725839194,
        -0.0000071274109408441395,
        0.0003673281755429297,
        -0.0002671624801601002,
        -0.0002616593609953154,
        -0.00047886000195247215,
        0.001667987826855139,
        0.0009749921434727087,
        0.00002537492100071005,
        0.00013878287015591816,
        0.0002504786620853108,
        -0.0008187611258271186,
        0.0008043730686717421,
        -0.0009627774166181009,
        0.0006294417049102234,
        -0.0012927889376391248,
        -0.0019794172905416994,
        -0.0032674999626394904,
        0.0029998195502002833,
        -0.0015711377205044634,
        -0.0002545024142942007,
        0.006903026182746259,
        0.005947684426682841,
        0.013908289517439078,
        0.0063584843733756405,
        0.0008972114524021398,
        -0.003434252284349783,
        0.0022785441341213564,
        -0.00173098087411679,
        -0.0037725233935664093,
        -0.0033702827618937487,
        -0.0011684694393743343,
        -0.0011229952430284733,
        -0.000839797764100519,
        -0.0002761021342385608,
        -0.000711758817843058,
        -0.0005223372440384689,
        0.0005668881201568013,
        -0.0004451171690941587,
        0.0002504974661019214,
        -0.0026170252502668366,
        0.0007779692036179418,
        0.0000963654130747416,
        0.007654453021189154,
        0.001711421369554741,
        -0.009947315323687754,
        0.012719711527079154,
        0.01569349325243658,
        0.025558637630501597,
        0.03226650231922566,
        -0.021196111533634206,
        0.015788522185585966,
        0.04726814251526423,
        0.04498017606226198,
        -0.005100213794363608,
        -0.01736753130995909,
        -0.03135654815109296,
        -0.02738914740664595,
        -0.003376610389604281,
        -0.0000031478703246381143,
        -0.0038614970103462705,
        -0.002086262644356037,
        -0.0018573843429758297,
        -0.0011734206207275834,
        0.00010821067024141555,
        -0.0006696959469815653,
        0.0025177569629238217,
        -0.000056453012696562283,
        0.0019397652694048936,
        0.010089949205292029,
        0.02292487880438251,
        0.040786496011448695,
        0.085884867737526,
        0.07914706268296683,
        0.07372370011703382,
        0.07798377044386759,
        0.11512873366557143,
        0.07941627449177519,
        0.08595257624163953,
        0.07303770731962413,
        0.07320374147457924,
        0.021686970559141504,
        -0.01304328425591987,
        0.0006409692625401378,
        -0.010897999242155362,
        -0.04061709852722504,
        -0.03039961761772052,
        -0.041837372928141936,
        -0.01998039123842338,
        -0.005645581948381363,
        -0.0001585819132432373,
        -0.0019672818974568263,
        -0.0004268535198285704,
        -0.0002748510137808642,
